digraph Tree {
node [shape=box] ;
0 [label="Sex_female <= 0.5\ngini = 0.473\nsamples = 891\nvalue = [549, 342]"] ;
1 [label="Age <= 6.5\ngini = 0.306\nsamples = 577\nvalue = [468, 109]"] ;
0 -> 1 [labeldistance=2.5, labelangle=45, headlabel="True"] ;
2 [label="FamilySize <= 4.5\ngini = 0.444\nsamples = 24\nvalue = [8, 16]"] ;
1 -> 2 ;
3 [label="gini = 0.0\nsamples = 15\nvalue = [0, 15]"] ;
2 -> 3 ;
4 [label="FamilySize <= 6.5\ngini = 0.198\nsamples = 9\nvalue = [8, 1]"] ;
2 -> 4 ;
5 [label="gini = 0.0\nsamples = 6\nvalue = [6, 0]"] ;
4 -> 5 ;
6 [label="FamilySize <= 7.5\ngini = 0.444\nsamples = 3\nvalue = [2, 1]"] ;
4 -> 6 ;
7 [label="Age <= 3.5\ngini = 0.5\nsamples = 2\nvalue = [1, 1]"] ;
6 -> 7 ;
8 [label="gini = 0.0\nsamples = 1\nvalue = [0, 1]"] ;
7 -> 8 ;
9 [label="gini = 0.0\nsamples = 1\nvalue = [1, 0]"] ;
7 -> 9 ;
10 [label="gini = 0.0\nsamples = 1\nvalue = [1, 0]"] ;
6 -> 10 ;
11 [label="Pclass <= 1.5\ngini = 0.28\nsamples = 553\nvalue = [460, 93]"] ;
1 -> 11 ;
12 [label="Fare <= 26.144\ngini = 0.46\nsamples = 120\nvalue = [77, 43]"] ;
11 -> 12 ;
13 [label="gini = 0.0\nsamples = 10\nvalue = [10, 0]"] ;
12 -> 13 ;
14 [label="Age <= 53.0\ngini = 0.476\nsamples = 110\nvalue = [67, 43]"] ;
12 -> 14 ;
15 [label="Fare <= 27.135\ngini = 0.495\nsamples = 89\nvalue = [49, 40]"] ;
14 -> 15 ;
16 [label="Fare <= 26.469\ngini = 0.26\nsamples = 13\nvalue = [2, 11]"] ;
15 -> 16 ;
17 [label="gini = 0.0\nsamples = 4\nvalue = [0, 4]"] ;
16 -> 17 ;
18 [label="Age <= 46.5\ngini = 0.346\nsamples = 9\nvalue = [2, 7]"] ;
16 -> 18 ;
19 [label="Age <= 40.0\ngini = 0.408\nsamples = 7\nvalue = [2, 5]"] ;
18 -> 19 ;
20 [label="Age <= 31.0\ngini = 0.32\nsamples = 5\nvalue = [1, 4]"] ;
19 -> 20 ;
21 [label="gini = 0.444\nsamples = 3\nvalue = [1, 2]"] ;
20 -> 21 ;
22 [label="gini = 0.0\nsamples = 2\nvalue = [0, 2]"] ;
20 -> 22 ;
23 [label="gini = 0.5\nsamples = 2\nvalue = [1, 1]"] ;
19 -> 23 ;
24 [label="gini = 0.0\nsamples = 2\nvalue = [0, 2]"] ;
18 -> 24 ;
25 [label="Fare <= 387.665\ngini = 0.472\nsamples = 76\nvalue = [47, 29]"] ;
15 -> 25 ;
26 [label="Fare <= 134.642\ngini = 0.463\nsamples = 74\nvalue = [47, 27]"] ;
25 -> 26 ;
27 [label="Age <= 27.5\ngini = 0.481\nsamples = 67\nvalue = [40, 27]"] ;
26 -> 27 ;
28 [label="Age <= 24.5\ngini = 0.426\nsamples = 13\nvalue = [4, 9]"] ;
27 -> 28 ;
29 [label="Fare <= 109.892\ngini = 0.49\nsamples = 7\nvalue = [4, 3]"] ;
28 -> 29 ;
30 [label="Age <= 22.0\ngini = 0.32\nsamples = 5\nvalue = [4, 1]"] ;
29 -> 30 ;
31 [label="gini = 0.0\nsamples = 3\nvalue = [3, 0]"] ;
30 -> 31 ;
32 [label="FamilySize <= 1.5\ngini = 0.5\nsamples = 2\nvalue = [1, 1]"] ;
30 -> 32 ;
33 [label="gini = 0.0\nsamples = 1\nvalue = [1, 0]"] ;
32 -> 33 ;
34 [label="gini = 0.0\nsamples = 1\nvalue = [0, 1]"] ;
32 -> 34 ;
35 [label="gini = 0.0\nsamples = 2\nvalue = [0, 2]"] ;
29 -> 35 ;
36 [label="gini = 0.0\nsamples = 6\nvalue = [0, 6]"] ;
28 -> 36 ;
37 [label="Fare <= 115.442\ngini = 0.444\nsamples = 54\nvalue = [36, 18]"] ;
27 -> 37 ;
38 [label="Fare <= 29.1\ngini = 0.426\nsamples = 52\nvalue = [36, 16]"] ;
37 -> 38 ;
39 [label="gini = 0.0\nsamples = 5\nvalue = [5, 0]"] ;
38 -> 39 ;
40 [label="Fare <= 30.598\ngini = 0.449\nsamples = 47\nvalue = [31, 16]"] ;
38 -> 40 ;
41 [label="FamilySize <= 1.5\ngini = 0.408\nsamples = 7\nvalue = [2, 5]"] ;
40 -> 41 ;
42 [label="Age <= 28.5\ngini = 0.278\nsamples = 6\nvalue = [1, 5]"] ;
41 -> 42 ;
43 [label="gini = 0.0\nsamples = 3\nvalue = [0, 3]"] ;
42 -> 43 ;
44 [label="Age <= 30.5\ngini = 0.444\nsamples = 3\nvalue = [1, 2]"] ;
42 -> 44 ;
45 [label="gini = 0.0\nsamples = 1\nvalue = [1, 0]"] ;
44 -> 45 ;
46 [label="gini = 0.0\nsamples = 2\nvalue = [0, 2]"] ;
44 -> 46 ;
47 [label="gini = 0.0\nsamples = 1\nvalue = [1, 0]"] ;
41 -> 47 ;
48 [label="FamilySize <= 1.5\ngini = 0.399\nsamples = 40\nvalue = [29, 11]"] ;
40 -> 48 ;
49 [label="Fare <= 37.0\ngini = 0.278\nsamples = 18\nvalue = [15, 3]"] ;
48 -> 49 ;
50 [label="Fare <= 35.25\ngini = 0.469\nsamples = 8\nvalue = [5, 3]"] ;
49 -> 50 ;
51 [label="Embarked_C <= 0.5\ngini = 0.32\nsamples = 5\nvalue = [4, 1]"] ;
50 -> 51 ;
52 [label="gini = 0.0\nsamples = 3\nvalue = [3, 0]"] ;
51 -> 52 ;
53 [label="Age <= 34.0\ngini = 0.5\nsamples = 2\nvalue = [1, 1]"] ;
51 -> 53 ;
54 [label="gini = 0.0\nsamples = 1\nvalue = [1, 0]"] ;
53 -> 54 ;
55 [label="gini = 0.0\nsamples = 1\nvalue = [0, 1]"] ;
53 -> 55 ;
56 [label="Age <= 36.5\ngini = 0.444\nsamples = 3\nvalue = [1, 2]"] ;
50 -> 56 ;
57 [label="gini = 0.0\nsamples = 2\nvalue = [0, 2]"] ;
56 -> 57 ;
58 [label="gini = 0.0\nsamples = 1\nvalue = [1, 0]"] ;
56 -> 58 ;
59 [label="gini = 0.0\nsamples = 10\nvalue = [10, 0]"] ;
49 -> 59 ;
60 [label="Age <= 49.5\ngini = 0.463\nsamples = 22\nvalue = [14, 8]"] ;
48 -> 60 ;
61 [label="Age <= 47.0\ngini = 0.494\nsamples = 18\nvalue = [10, 8]"] ;
60 -> 61 ;
62 [label="Fare <= 59.087\ngini = 0.426\nsamples = 13\nvalue = [9, 4]"] ;
61 -> 62 ;
63 [label="Fare <= 52.277\ngini = 0.5\nsamples = 6\nvalue = [3, 3]"] ;
62 -> 63 ;
64 [label="gini = 0.0\nsamples = 2\nvalue = [2, 0]"] ;
63 -> 64 ;
65 [label="Fare <= 52.827\ngini = 0.375\nsamples = 4\nvalue = [1, 3]"] ;
63 -> 65 ;
66 [label="gini = 0.0\nsamples = 2\nvalue = [0, 2]"] ;
65 -> 66 ;
67 [label="Fare <= 55.05\ngini = 0.5\nsamples = 2\nvalue = [1, 1]"] ;
65 -> 67 ;
68 [label="gini = 0.0\nsamples = 1\nvalue = [1, 0]"] ;
67 -> 68 ;
69 [label="gini = 0.0\nsamples = 1\nvalue = [0, 1]"] ;
67 -> 69 ;
70 [label="Fare <= 86.737\ngini = 0.245\nsamples = 7\nvalue = [6, 1]"] ;
62 -> 70 ;
71 [label="gini = 0.0\nsamples = 5\nvalue = [5, 0]"] ;
70 -> 71 ;
72 [label="Embarked_S <= 0.5\ngini = 0.5\nsamples = 2\nvalue = [1, 1]"] ;
70 -> 72 ;
73 [label="gini = 0.0\nsamples = 1\nvalue = [1, 0]"] ;
72 -> 73 ;
74 [label="gini = 0.0\nsamples = 1\nvalue = [0, 1]"] ;
72 -> 74 ;
75 [label="Fare <= 99.994\ngini = 0.32\nsamples = 5\nvalue = [1, 4]"] ;
61 -> 75 ;
76 [label="gini = 0.0\nsamples = 4\nvalue = [0, 4]"] ;
75 -> 76 ;
77 [label="gini = 0.0\nsamples = 1\nvalue = [1, 0]"] ;
75 -> 77 ;
78 [label="gini = 0.0\nsamples = 4\nvalue = [4, 0]"] ;
60 -> 78 ;
79 [label="gini = 0.0\nsamples = 2\nvalue = [0, 2]"] ;
37 -> 79 ;
80 [label="gini = 0.0\nsamples = 7\nvalue = [7, 0]"] ;
26 -> 80 ;
81 [label="gini = 0.0\nsamples = 2\nvalue = [0, 2]"] ;
25 -> 81 ;
82 [label="Age <= 75.5\ngini = 0.245\nsamples = 21\nvalue = [18, 3]"] ;
14 -> 82 ;
83 [label="Embarked_S <= 0.5\ngini = 0.18\nsamples = 20\nvalue = [18, 2]"] ;
82 -> 83 ;
84 [label="Fare <= 35.077\ngini = 0.375\nsamples = 8\nvalue = [6, 2]"] ;
83 -> 84 ;
85 [label="gini = 0.0\nsamples = 3\nvalue = [3, 0]"] ;
84 -> 85 ;
86 [label="Age <= 62.5\ngini = 0.48\nsamples = 5\nvalue = [3, 2]"] ;
84 -> 86 ;
87 [label="Fare <= 96.237\ngini = 0.444\nsamples = 3\nvalue = [1, 2]"] ;
86 -> 87 ;
88 [label="gini = 0.0\nsamples = 2\nvalue = [0, 2]"] ;
87 -> 88 ;
89 [label="gini = 0.0\nsamples = 1\nvalue = [1, 0]"] ;
87 -> 89 ;
90 [label="gini = 0.0\nsamples = 2\nvalue = [2, 0]"] ;
86 -> 90 ;
91 [label="gini = 0.0\nsamples = 12\nvalue = [12, 0]"] ;
83 -> 91 ;
92 [label="gini = 0.0\nsamples = 1\nvalue = [0, 1]"] ;
82 -> 92 ;
93 [label="Fare <= 51.698\ngini = 0.204\nsamples = 433\nvalue = [383, 50]"] ;
11 -> 93 ;
94 [label="Age <= 13.0\ngini = 0.193\nsamples = 417\nvalue = [372, 45]"] ;
93 -> 94 ;
95 [label="FamilySize <= 4.5\ngini = 0.444\nsamples = 12\nvalue = [8, 4]"] ;
94 -> 95 ;
96 [label="FamilySize <= 1.5\ngini = 0.32\nsamples = 5\nvalue = [1, 4]"] ;
95 -> 96 ;
97 [label="gini = 0.0\nsamples = 1\nvalue = [1, 0]"] ;
96 -> 97 ;
98 [label="gini = 0.0\nsamples = 4\nvalue = [0, 4]"] ;
96 -> 98 ;
99 [label="gini = 0.0\nsamples = 7\nvalue = [7, 0]"] ;
95 -> 99 ;
100 [label="Embarked_C <= 0.5\ngini = 0.182\nsamples = 405\nvalue = [364, 41]"] ;
94 -> 100 ;
101 [label="Fare <= 13.25\ngini = 0.164\nsamples = 356\nvalue = [324, 32]"] ;
100 -> 101 ;
102 [label="Fare <= 7.91\ngini = 0.188\nsamples = 285\nvalue = [255, 30]"] ;
101 -> 102 ;
103 [label="Fare <= 7.865\ngini = 0.129\nsamples = 144\nvalue = [134, 10]"] ;
102 -> 103 ;
104 [label="Age <= 32.5\ngini = 0.165\nsamples = 110\nvalue = [100, 10]"] ;
103 -> 104 ;
105 [label="Age <= 31.5\ngini = 0.203\nsamples = 87\nvalue = [77, 10]"] ;
104 -> 105 ;
106 [label="Age <= 23.5\ngini = 0.189\nsamples = 85\nvalue = [76, 9]"] ;
105 -> 106 ;
107 [label="Fare <= 7.785\ngini = 0.067\nsamples = 29\nvalue = [28, 1]"] ;
106 -> 107 ;
108 [label="gini = 0.0\nsamples = 20\nvalue = [20, 0]"] ;
107 -> 108 ;
109 [label="Fare <= 7.798\ngini = 0.198\nsamples = 9\nvalue = [8, 1]"] ;
107 -> 109 ;
110 [label="Age <= 19.5\ngini = 0.444\nsamples = 3\nvalue = [2, 1]"] ;
109 -> 110 ;
111 [label="gini = 0.0\nsamples = 1\nvalue = [1, 0]"] ;
110 -> 111 ;
112 [label="Age <= 21.5\ngini = 0.5\nsamples = 2\nvalue = [1, 1]"] ;
110 -> 112 ;
113 [label="gini = 0.0\nsamples = 1\nvalue = [0, 1]"] ;
112 -> 113 ;
114 [label="gini = 0.0\nsamples = 1\nvalue = [1, 0]"] ;
112 -> 114 ;
115 [label="gini = 0.0\nsamples = 6\nvalue = [6, 0]"] ;
109 -> 115 ;
116 [label="Age <= 27.5\ngini = 0.245\nsamples = 56\nvalue = [48, 8]"] ;
106 -> 116 ;
117 [label="Age <= 26.5\ngini = 0.43\nsamples = 16\nvalue = [11, 5]"] ;
116 -> 117 ;
118 [label="Fare <= 3.525\ngini = 0.337\nsamples = 14\nvalue = [11, 3]"] ;
117 -> 118 ;
119 [label="gini = 0.0\nsamples = 1\nvalue = [0, 1]"] ;
118 -> 119 ;
120 [label="FamilySize <= 1.5\ngini = 0.26\nsamples = 13\nvalue = [11, 2]"] ;
118 -> 120 ;
121 [label="Age <= 24.5\ngini = 0.18\nsamples = 10\nvalue = [9, 1]"] ;
120 -> 121 ;
122 [label="Fare <= 7.319\ngini = 0.375\nsamples = 4\nvalue = [3, 1]"] ;
121 -> 122 ;
123 [label="Fare <= 7.096\ngini = 0.5\nsamples = 2\nvalue = [1, 1]"] ;
122 -> 123 ;
124 [label="gini = 0.0\nsamples = 1\nvalue = [1, 0]"] ;
123 -> 124 ;
125 [label="gini = 0.0\nsamples = 1\nvalue = [0, 1]"] ;
123 -> 125 ;
126 [label="gini = 0.0\nsamples = 2\nvalue = [2, 0]"] ;
122 -> 126 ;
127 [label="gini = 0.0\nsamples = 6\nvalue = [6, 0]"] ;
121 -> 127 ;
128 [label="Fare <= 7.815\ngini = 0.444\nsamples = 3\nvalue = [2, 1]"] ;
120 -> 128 ;
129 [label="gini = 0.5\nsamples = 2\nvalue = [1, 1]"] ;
128 -> 129 ;
130 [label="gini = 0.0\nsamples = 1\nvalue = [1, 0]"] ;
128 -> 130 ;
131 [label="gini = 0.0\nsamples = 2\nvalue = [0, 2]"] ;
117 -> 131 ;
132 [label="Fare <= 7.744\ngini = 0.139\nsamples = 40\nvalue = [37, 3]"] ;
116 -> 132 ;
133 [label="gini = 0.0\nsamples = 20\nvalue = [20, 0]"] ;
132 -> 133 ;
134 [label="Fare <= 7.785\ngini = 0.255\nsamples = 20\nvalue = [17, 3]"] ;
132 -> 134 ;
135 [label="Age <= 30.0\ngini = 0.291\nsamples = 17\nvalue = [14, 3]"] ;
134 -> 135 ;
136 [label="Age <= 28.5\ngini = 0.32\nsamples = 15\nvalue = [12, 3]"] ;
135 -> 136 ;
137 [label="Fare <= 7.763\ngini = 0.26\nsamples = 13\nvalue = [11, 2]"] ;
136 -> 137 ;
138 [label="FamilySize <= 1.5\ngini = 0.165\nsamples = 11\nvalue = [10, 1]"] ;
137 -> 138 ;
139 [label="gini = 0.18\nsamples = 10\nvalue = [9, 1]"] ;
138 -> 139 ;
140 [label="gini = 0.0\nsamples = 1\nvalue = [1, 0]"] ;
138 -> 140 ;
141 [label="gini = 0.5\nsamples = 2\nvalue = [1, 1]"] ;
137 -> 141 ;
142 [label="Embarked_Q <= 0.5\ngini = 0.5\nsamples = 2\nvalue = [1, 1]"] ;
136 -> 142 ;
143 [label="gini = 0.0\nsamples = 1\nvalue = [1, 0]"] ;
142 -> 143 ;
144 [label="gini = 0.0\nsamples = 1\nvalue = [0, 1]"] ;
142 -> 144 ;
145 [label="gini = 0.0\nsamples = 2\nvalue = [2, 0]"] ;
135 -> 145 ;
146 [label="gini = 0.0\nsamples = 3\nvalue = [3, 0]"] ;
134 -> 146 ;
147 [label="Embarked_S <= 0.5\ngini = 0.5\nsamples = 2\nvalue = [1, 1]"] ;
105 -> 147 ;
148 [label="gini = 0.0\nsamples = 1\nvalue = [1, 0]"] ;
147 -> 148 ;
149 [label="gini = 0.0\nsamples = 1\nvalue = [0, 1]"] ;
147 -> 149 ;
150 [label="gini = 0.0\nsamples = 23\nvalue = [23, 0]"] ;
104 -> 150 ;
151 [label="gini = 0.0\nsamples = 34\nvalue = [34, 0]"] ;
103 -> 151 ;
152 [label="Fare <= 7.988\ngini = 0.243\nsamples = 141\nvalue = [121, 20]"] ;
102 -> 152 ;
153 [label="Age <= 41.5\ngini = 0.473\nsamples = 13\nvalue = [8, 5]"] ;
152 -> 153 ;
154 [label="FamilySize <= 2.5\ngini = 0.444\nsamples = 12\nvalue = [8, 4]"] ;
153 -> 154 ;
155 [label="FamilySize <= 1.5\ngini = 0.48\nsamples = 10\nvalue = [6, 4]"] ;
154 -> 155 ;
156 [label="Age <= 26.0\ngini = 0.444\nsamples = 9\nvalue = [6, 3]"] ;
155 -> 156 ;
157 [label="gini = 0.0\nsamples = 3\nvalue = [3, 0]"] ;
156 -> 157 ;
158 [label="Age <= 31.5\ngini = 0.5\nsamples = 6\nvalue = [3, 3]"] ;
156 -> 158 ;
159 [label="gini = 0.0\nsamples = 1\nvalue = [0, 1]"] ;
158 -> 159 ;
160 [label="Age <= 35.5\ngini = 0.48\nsamples = 5\nvalue = [3, 2]"] ;
158 -> 160 ;
161 [label="gini = 0.444\nsamples = 3\nvalue = [2, 1]"] ;
160 -> 161 ;
162 [label="gini = 0.5\nsamples = 2\nvalue = [1, 1]"] ;
160 -> 162 ;
163 [label="gini = 0.0\nsamples = 1\nvalue = [0, 1]"] ;
155 -> 163 ;
164 [label="gini = 0.0\nsamples = 2\nvalue = [2, 0]"] ;
154 -> 164 ;
165 [label="gini = 0.0\nsamples = 1\nvalue = [0, 1]"] ;
153 -> 165 ;
166 [label="Age <= 19.5\ngini = 0.207\nsamples = 128\nvalue = [113, 15]"] ;
152 -> 166 ;
167 [label="Fare <= 8.104\ngini = 0.32\nsamples = 20\nvalue = [16, 4]"] ;
166 -> 167 ;
168 [label="Age <= 17.0\ngini = 0.48\nsamples = 5\nvalue = [2, 3]"] ;
167 -> 168 ;
169 [label="gini = 0.5\nsamples = 2\nvalue = [1, 1]"] ;
168 -> 169 ;
170 [label="Age <= 18.5\ngini = 0.444\nsamples = 3\nvalue = [1, 2]"] ;
168 -> 170 ;
171 [label="gini = 0.0\nsamples = 1\nvalue = [0, 1]"] ;
170 -> 171 ;
172 [label="gini = 0.5\nsamples = 2\nvalue = [1, 1]"] ;
170 -> 172 ;
173 [label="Age <= 18.5\ngini = 0.124\nsamples = 15\nvalue = [14, 1]"] ;
167 -> 173 ;
174 [label="gini = 0.0\nsamples = 10\nvalue = [10, 0]"] ;
173 -> 174 ;
175 [label="Pclass <= 2.5\ngini = 0.32\nsamples = 5\nvalue = [4, 1]"] ;
173 -> 175 ;
176 [label="Fare <= 11.75\ngini = 0.444\nsamples = 3\nvalue = [2, 1]"] ;
175 -> 176 ;
177 [label="gini = 0.5\nsamples = 2\nvalue = [1, 1]"] ;
176 -> 177 ;
178 [label="gini = 0.0\nsamples = 1\nvalue = [1, 0]"] ;
176 -> 178 ;
179 [label="gini = 0.0\nsamples = 2\nvalue = [2, 0]"] ;
175 -> 179 ;
180 [label="Age <= 26.5\ngini = 0.183\nsamples = 108\nvalue = [97, 11]"] ;
166 -> 180 ;
181 [label="gini = 0.0\nsamples = 31\nvalue = [31, 0]"] ;
180 -> 181 ;
182 [label="Fare <= 8.081\ngini = 0.245\nsamples = 77\nvalue = [66, 11]"] ;
180 -> 182 ;
183 [label="Age <= 31.25\ngini = 0.133\nsamples = 28\nvalue = [26, 2]"] ;
182 -> 183 ;
184 [label="gini = 0.0\nsamples = 16\nvalue = [16, 0]"] ;
183 -> 184 ;
185 [label="Age <= 33.0\ngini = 0.278\nsamples = 12\nvalue = [10, 2]"] ;
183 -> 185 ;
186 [label="gini = 0.0\nsamples = 1\nvalue = [0, 1]"] ;
185 -> 186 ;
187 [label="Age <= 44.5\ngini = 0.165\nsamples = 11\nvalue = [10, 1]"] ;
185 -> 187 ;
188 [label="gini = 0.0\nsamples = 7\nvalue = [7, 0]"] ;
187 -> 188 ;
189 [label="Age <= 47.5\ngini = 0.375\nsamples = 4\nvalue = [3, 1]"] ;
187 -> 189 ;
190 [label="gini = 0.0\nsamples = 1\nvalue = [0, 1]"] ;
189 -> 190 ;
191 [label="gini = 0.0\nsamples = 3\nvalue = [3, 0]"] ;
189 -> 191 ;
192 [label="Fare <= 8.238\ngini = 0.3\nsamples = 49\nvalue = [40, 9]"] ;
182 -> 192 ;
193 [label="gini = 0.0\nsamples = 1\nvalue = [0, 1]"] ;
192 -> 193 ;
194 [label="Age <= 31.5\ngini = 0.278\nsamples = 48\nvalue = [40, 8]"] ;
192 -> 194 ;
195 [label="Age <= 30.5\ngini = 0.363\nsamples = 21\nvalue = [16, 5]"] ;
194 -> 195 ;
196 [label="Fare <= 10.0\ngini = 0.332\nsamples = 19\nvalue = [15, 4]"] ;
195 -> 196 ;
197 [label="Age <= 27.5\ngini = 0.444\nsamples = 9\nvalue = [6, 3]"] ;
196 -> 197 ;
198 [label="gini = 0.0\nsamples = 1\nvalue = [0, 1]"] ;
197 -> 198 ;
199 [label="Age <= 28.5\ngini = 0.375\nsamples = 8\nvalue = [6, 2]"] ;
197 -> 199 ;
200 [label="gini = 0.0\nsamples = 5\nvalue = [5, 0]"] ;
199 -> 200 ;
201 [label="Fare <= 9.492\ngini = 0.444\nsamples = 3\nvalue = [1, 2]"] ;
199 -> 201 ;
202 [label="gini = 0.0\nsamples = 1\nvalue = [1, 0]"] ;
201 -> 202 ;
203 [label="gini = 0.0\nsamples = 2\nvalue = [0, 2]"] ;
201 -> 203 ;
204 [label="Age <= 28.5\ngini = 0.18\nsamples = 10\nvalue = [9, 1]"] ;
196 -> 204 ;
205 [label="Age <= 27.5\ngini = 0.32\nsamples = 5\nvalue = [4, 1]"] ;
204 -> 205 ;
206 [label="gini = 0.0\nsamples = 2\nvalue = [2, 0]"] ;
205 -> 206 ;
207 [label="Fare <= 11.75\ngini = 0.444\nsamples = 3\nvalue = [2, 1]"] ;
205 -> 207 ;
208 [label="gini = 0.0\nsamples = 1\nvalue = [1, 0]"] ;
207 -> 208 ;
209 [label="gini = 0.5\nsamples = 2\nvalue = [1, 1]"] ;
207 -> 209 ;
210 [label="gini = 0.0\nsamples = 5\nvalue = [5, 0]"] ;
204 -> 210 ;
211 [label="Fare <= 11.75\ngini = 0.5\nsamples = 2\nvalue = [1, 1]"] ;
195 -> 211 ;
212 [label="gini = 0.0\nsamples = 1\nvalue = [1, 0]"] ;
211 -> 212 ;
213 [label="gini = 0.0\nsamples = 1\nvalue = [0, 1]"] ;
211 -> 213 ;
214 [label="Age <= 59.5\ngini = 0.198\nsamples = 27\nvalue = [24, 3]"] ;
194 -> 214 ;
215 [label="Fare <= 12.762\ngini = 0.153\nsamples = 24\nvalue = [22, 2]"] ;
214 -> 215 ;
216 [label="gini = 0.0\nsamples = 13\nvalue = [13, 0]"] ;
215 -> 216 ;
217 [label="Age <= 45.0\ngini = 0.298\nsamples = 11\nvalue = [9, 2]"] ;
215 -> 217 ;
218 [label="Age <= 40.5\ngini = 0.375\nsamples = 8\nvalue = [6, 2]"] ;
217 -> 218 ;
219 [label="Age <= 35.0\ngini = 0.278\nsamples = 6\nvalue = [5, 1]"] ;
218 -> 219 ;
220 [label="gini = 0.444\nsamples = 3\nvalue = [2, 1]"] ;
219 -> 220 ;
221 [label="gini = 0.0\nsamples = 3\nvalue = [3, 0]"] ;
219 -> 221 ;
222 [label="gini = 0.5\nsamples = 2\nvalue = [1, 1]"] ;
218 -> 222 ;
223 [label="gini = 0.0\nsamples = 3\nvalue = [3, 0]"] ;
217 -> 223 ;
224 [label="Age <= 64.0\ngini = 0.444\nsamples = 3\nvalue = [2, 1]"] ;
214 -> 224 ;
225 [label="gini = 0.0\nsamples = 1\nvalue = [0, 1]"] ;
224 -> 225 ;
226 [label="gini = 0.0\nsamples = 2\nvalue = [2, 0]"] ;
224 -> 226 ;
227 [label="Embarked_Q <= 0.5\ngini = 0.055\nsamples = 71\nvalue = [69, 2]"] ;
101 -> 227 ;
228 [label="Fare <= 25.733\ngini = 0.031\nsamples = 64\nvalue = [63, 1]"] ;
227 -> 228 ;
229 [label="gini = 0.0\nsamples = 38\nvalue = [38, 0]"] ;
228 -> 229 ;
230 [label="Age <= 33.0\ngini = 0.074\nsamples = 26\nvalue = [25, 1]"] ;
228 -> 230 ;
231 [label="Age <= 31.5\ngini = 0.165\nsamples = 11\nvalue = [10, 1]"] ;
230 -> 231 ;
232 [label="gini = 0.0\nsamples = 10\nvalue = [10, 0]"] ;
231 -> 232 ;
233 [label="gini = 0.0\nsamples = 1\nvalue = [0, 1]"] ;
231 -> 233 ;
234 [label="gini = 0.0\nsamples = 15\nvalue = [15, 0]"] ;
230 -> 234 ;
235 [label="FamilySize <= 2.5\ngini = 0.245\nsamples = 7\nvalue = [6, 1]"] ;
227 -> 235 ;
236 [label="gini = 0.0\nsamples = 5\nvalue = [5, 0]"] ;
235 -> 236 ;
237 [label="Fare <= 19.375\ngini = 0.5\nsamples = 2\nvalue = [1, 1]"] ;
235 -> 237 ;
238 [label="gini = 0.0\nsamples = 1\nvalue = [1, 0]"] ;
237 -> 238 ;
239 [label="gini = 0.0\nsamples = 1\nvalue = [0, 1]"] ;
237 -> 239 ;
240 [label="Fare <= 15.148\ngini = 0.3\nsamples = 49\nvalue = [40, 9]"] ;
100 -> 240 ;
241 [label="Age <= 22.5\ngini = 0.224\nsamples = 39\nvalue = [34, 5]"] ;
240 -> 241 ;
242 [label="FamilySize <= 2.0\ngini = 0.444\nsamples = 6\nvalue = [4, 2]"] ;
241 -> 242 ;
243 [label="Fare <= 5.619\ngini = 0.5\nsamples = 4\nvalue = [2, 2]"] ;
242 -> 243 ;
244 [label="gini = 0.0\nsamples = 1\nvalue = [1, 0]"] ;
243 -> 244 ;
245 [label="Fare <= 7.227\ngini = 0.444\nsamples = 3\nvalue = [1, 2]"] ;
243 -> 245 ;
246 [label="gini = 0.0\nsamples = 1\nvalue = [0, 1]"] ;
245 -> 246 ;
247 [label="Age <= 21.0\ngini = 0.5\nsamples = 2\nvalue = [1, 1]"] ;
245 -> 247 ;
248 [label="gini = 0.0\nsamples = 1\nvalue = [0, 1]"] ;
247 -> 248 ;
249 [label="gini = 0.0\nsamples = 1\nvalue = [1, 0]"] ;
247 -> 249 ;
250 [label="gini = 0.0\nsamples = 2\nvalue = [2, 0]"] ;
242 -> 250 ;
251 [label="Fare <= 7.227\ngini = 0.165\nsamples = 33\nvalue = [30, 3]"] ;
241 -> 251 ;
252 [label="gini = 0.0\nsamples = 10\nvalue = [10, 0]"] ;
251 -> 252 ;
253 [label="Age <= 29.5\ngini = 0.227\nsamples = 23\nvalue = [20, 3]"] ;
251 -> 253 ;
254 [label="Age <= 28.75\ngini = 0.278\nsamples = 18\nvalue = [15, 3]"] ;
253 -> 254 ;
255 [label="Pclass <= 2.5\ngini = 0.208\nsamples = 17\nvalue = [15, 2]"] ;
254 -> 255 ;
256 [label="Fare <= 14.454\ngini = 0.444\nsamples = 3\nvalue = [2, 1]"] ;
255 -> 256 ;
257 [label="gini = 0.0\nsamples = 1\nvalue = [0, 1]"] ;
256 -> 257 ;
258 [label="gini = 0.0\nsamples = 2\nvalue = [2, 0]"] ;
256 -> 258 ;
259 [label="Fare <= 7.562\ngini = 0.133\nsamples = 14\nvalue = [13, 1]"] ;
255 -> 259 ;
260 [label="Age <= 25.75\ngini = 0.219\nsamples = 8\nvalue = [7, 1]"] ;
259 -> 260 ;
261 [label="gini = 0.0\nsamples = 1\nvalue = [1, 0]"] ;
260 -> 261 ;
262 [label="Age <= 28.25\ngini = 0.245\nsamples = 7\nvalue = [6, 1]"] ;
260 -> 262 ;
263 [label="gini = 0.278\nsamples = 6\nvalue = [5, 1]"] ;
262 -> 263 ;
264 [label="gini = 0.0\nsamples = 1\nvalue = [1, 0]"] ;
262 -> 264 ;
265 [label="gini = 0.0\nsamples = 6\nvalue = [6, 0]"] ;
259 -> 265 ;
266 [label="gini = 0.0\nsamples = 1\nvalue = [0, 1]"] ;
254 -> 266 ;
267 [label="gini = 0.0\nsamples = 5\nvalue = [5, 0]"] ;
253 -> 267 ;
268 [label="Fare <= 20.233\ngini = 0.48\nsamples = 10\nvalue = [6, 4]"] ;
240 -> 268 ;
269 [label="gini = 0.0\nsamples = 4\nvalue = [0, 4]"] ;
268 -> 269 ;
270 [label="gini = 0.0\nsamples = 6\nvalue = [6, 0]"] ;
268 -> 270 ;
271 [label="Fare <= 63.023\ngini = 0.43\nsamples = 16\nvalue = [11, 5]"] ;
93 -> 271 ;
272 [label="Age <= 30.0\ngini = 0.408\nsamples = 7\nvalue = [2, 5]"] ;
271 -> 272 ;
273 [label="Age <= 27.0\ngini = 0.48\nsamples = 5\nvalue = [2, 3]"] ;
272 -> 273 ;
274 [label="gini = 0.0\nsamples = 1\nvalue = [0, 1]"] ;
273 -> 274 ;
275 [label="gini = 0.5\nsamples = 4\nvalue = [2, 2]"] ;
273 -> 275 ;
276 [label="gini = 0.0\nsamples = 2\nvalue = [0, 2]"] ;
272 -> 276 ;
277 [label="gini = 0.0\nsamples = 9\nvalue = [9, 0]"] ;
271 -> 277 ;
278 [label="Pclass <= 2.5\ngini = 0.383\nsamples = 314\nvalue = [81, 233]"] ;
0 -> 278 [labeldistance=2.5, labelangle=-45, headlabel="False"] ;
279 [label="Age <= 2.5\ngini = 0.1\nsamples = 170\nvalue = [9, 161]"] ;
278 -> 279 ;
280 [label="Fare <= 88.775\ngini = 0.5\nsamples = 2\nvalue = [1, 1]"] ;
279 -> 280 ;
281 [label="gini = 0.0\nsamples = 1\nvalue = [0, 1]"] ;
280 -> 281 ;
282 [label="gini = 0.0\nsamples = 1\nvalue = [1, 0]"] ;
280 -> 282 ;
283 [label="Fare <= 28.856\ngini = 0.091\nsamples = 168\nvalue = [8, 160]"] ;
279 -> 283 ;
284 [label="Fare <= 28.231\ngini = 0.182\nsamples = 69\nvalue = [7, 62]"] ;
283 -> 284 ;
285 [label="Age <= 56.0\ngini = 0.161\nsamples = 68\nvalue = [6, 62]"] ;
284 -> 285 ;
286 [label="Age <= 23.5\ngini = 0.14\nsamples = 66\nvalue = [5, 61]"] ;
285 -> 286 ;
287 [label="gini = 0.0\nsamples = 14\nvalue = [0, 14]"] ;
286 -> 287 ;
288 [label="Age <= 27.5\ngini = 0.174\nsamples = 52\nvalue = [5, 47]"] ;
286 -> 288 ;
289 [label="Age <= 25.5\ngini = 0.397\nsamples = 11\nvalue = [3, 8]"] ;
288 -> 289 ;
290 [label="FamilySize <= 1.5\ngini = 0.245\nsamples = 7\nvalue = [1, 6]"] ;
289 -> 290 ;
291 [label="gini = 0.5\nsamples = 2\nvalue = [1, 1]"] ;
290 -> 291 ;
292 [label="gini = 0.0\nsamples = 5\nvalue = [0, 5]"] ;
290 -> 292 ;
293 [label="Fare <= 17.429\ngini = 0.5\nsamples = 4\nvalue = [2, 2]"] ;
289 -> 293 ;
294 [label="gini = 0.0\nsamples = 2\nvalue = [0, 2]"] ;
293 -> 294 ;
295 [label="gini = 0.0\nsamples = 2\nvalue = [2, 0]"] ;
293 -> 295 ;
296 [label="Age <= 37.0\ngini = 0.093\nsamples = 41\nvalue = [2, 39]"] ;
288 -> 296 ;
297 [label="gini = 0.0\nsamples = 24\nvalue = [0, 24]"] ;
296 -> 297 ;
298 [label="Age <= 39.0\ngini = 0.208\nsamples = 17\nvalue = [2, 15]"] ;
296 -> 298 ;
299 [label="gini = 0.0\nsamples = 1\nvalue = [1, 0]"] ;
298 -> 299 ;
300 [label="Fare <= 25.965\ngini = 0.117\nsamples = 16\nvalue = [1, 15]"] ;
298 -> 300 ;
301 [label="gini = 0.0\nsamples = 11\nvalue = [0, 11]"] ;
300 -> 301 ;
302 [label="Age <= 44.5\ngini = 0.32\nsamples = 5\nvalue = [1, 4]"] ;
300 -> 302 ;
303 [label="Pclass <= 1.5\ngini = 0.444\nsamples = 3\nvalue = [1, 2]"] ;
302 -> 303 ;
304 [label="gini = 0.0\nsamples = 1\nvalue = [0, 1]"] ;
303 -> 304 ;
305 [label="Age <= 43.0\ngini = 0.5\nsamples = 2\nvalue = [1, 1]"] ;
303 -> 305 ;
306 [label="gini = 0.0\nsamples = 1\nvalue = [0, 1]"] ;
305 -> 306 ;
307 [label="gini = 0.0\nsamples = 1\nvalue = [1, 0]"] ;
305 -> 307 ;
308 [label="gini = 0.0\nsamples = 2\nvalue = [0, 2]"] ;
302 -> 308 ;
309 [label="Pclass <= 1.5\ngini = 0.5\nsamples = 2\nvalue = [1, 1]"] ;
285 -> 309 ;
310 [label="gini = 0.0\nsamples = 1\nvalue = [0, 1]"] ;
309 -> 310 ;
311 [label="gini = 0.0\nsamples = 1\nvalue = [1, 0]"] ;
309 -> 311 ;
312 [label="gini = 0.0\nsamples = 1\nvalue = [1, 0]"] ;
284 -> 312 ;
313 [label="FamilySize <= 3.5\ngini = 0.02\nsamples = 99\nvalue = [1, 98]"] ;
283 -> 313 ;
314 [label="gini = 0.0\nsamples = 87\nvalue = [0, 87]"] ;
313 -> 314 ;
315 [label="Age <= 24.5\ngini = 0.153\nsamples = 12\nvalue = [1, 11]"] ;
313 -> 315 ;
316 [label="gini = 0.0\nsamples = 9\nvalue = [0, 9]"] ;
315 -> 316 ;
317 [label="Age <= 30.5\ngini = 0.444\nsamples = 3\nvalue = [1, 2]"] ;
315 -> 317 ;
318 [label="gini = 0.0\nsamples = 1\nvalue = [1, 0]"] ;
317 -> 318 ;
319 [label="gini = 0.0\nsamples = 2\nvalue = [0, 2]"] ;
317 -> 319 ;
320 [label="FamilySize <= 4.5\ngini = 0.5\nsamples = 144\nvalue = [72, 72]"] ;
278 -> 320 ;
321 [label="Age <= 36.5\ngini = 0.484\nsamples = 117\nvalue = [48, 69]"] ;
320 -> 321 ;
322 [label="Embarked_S <= 0.5\ngini = 0.472\nsamples = 110\nvalue = [42, 68]"] ;
321 -> 322 ;
323 [label="Age <= 29.75\ngini = 0.401\nsamples = 54\nvalue = [15, 39]"] ;
322 -> 323 ;
324 [label="Fare <= 15.373\ngini = 0.375\nsamples = 52\nvalue = [13, 39]"] ;
323 -> 324 ;
325 [label="Fare <= 13.935\ngini = 0.439\nsamples = 40\nvalue = [13, 27]"] ;
324 -> 325 ;
326 [label="Fare <= 6.987\ngini = 0.312\nsamples = 31\nvalue = [6, 25]"] ;
325 -> 326 ;
327 [label="gini = 0.0\nsamples = 1\nvalue = [1, 0]"] ;
326 -> 327 ;
328 [label="FamilySize <= 2.5\ngini = 0.278\nsamples = 30\nvalue = [5, 25]"] ;
326 -> 328 ;
329 [label="Age <= 20.0\ngini = 0.238\nsamples = 29\nvalue = [4, 25]"] ;
328 -> 329 ;
330 [label="gini = 0.0\nsamples = 8\nvalue = [0, 8]"] ;
329 -> 330 ;
331 [label="Fare <= 8.008\ngini = 0.308\nsamples = 21\nvalue = [4, 17]"] ;
329 -> 331 ;
332 [label="Age <= 21.5\ngini = 0.255\nsamples = 20\nvalue = [3, 17]"] ;
331 -> 332 ;
333 [label="gini = 0.0\nsamples = 1\nvalue = [1, 0]"] ;
332 -> 333 ;
334 [label="Fare <= 7.681\ngini = 0.188\nsamples = 19\nvalue = [2, 17]"] ;
332 -> 334 ;
335 [label="Embarked_Q <= 0.5\ngini = 0.444\nsamples = 3\nvalue = [1, 2]"] ;
334 -> 335 ;
336 [label="gini = 0.0\nsamples = 2\nvalue = [0, 2]"] ;
335 -> 336 ;
337 [label="gini = 0.0\nsamples = 1\nvalue = [1, 0]"] ;
335 -> 337 ;
338 [label="Fare <= 7.769\ngini = 0.117\nsamples = 16\nvalue = [1, 15]"] ;
334 -> 338 ;
339 [label="Fare <= 7.744\ngini = 0.165\nsamples = 11\nvalue = [1, 10]"] ;
338 -> 339 ;
340 [label="gini = 0.0\nsamples = 2\nvalue = [0, 2]"] ;
339 -> 340 ;
341 [label="Age <= 25.0\ngini = 0.198\nsamples = 9\nvalue = [1, 8]"] ;
339 -> 341 ;
342 [label="gini = 0.0\nsamples = 1\nvalue = [0, 1]"] ;
341 -> 342 ;
343 [label="gini = 0.219\nsamples = 8\nvalue = [1, 7]"] ;
341 -> 343 ;
344 [label="gini = 0.0\nsamples = 5\nvalue = [0, 5]"] ;
338 -> 344 ;
345 [label="gini = 0.0\nsamples = 1\nvalue = [1, 0]"] ;
331 -> 345 ;
346 [label="gini = 0.0\nsamples = 1\nvalue = [1, 0]"] ;
328 -> 346 ;
347 [label="Age <= 28.5\ngini = 0.346\nsamples = 9\nvalue = [7, 2]"] ;
325 -> 347 ;
348 [label="Age <= 16.0\ngini = 0.219\nsamples = 8\nvalue = [7, 1]"] ;
347 -> 348 ;
349 [label="Age <= 14.75\ngini = 0.444\nsamples = 3\nvalue = [2, 1]"] ;
348 -> 349 ;
350 [label="gini = 0.0\nsamples = 2\nvalue = [2, 0]"] ;
349 -> 350 ;
351 [label="gini = 0.0\nsamples = 1\nvalue = [0, 1]"] ;
349 -> 351 ;
352 [label="gini = 0.0\nsamples = 5\nvalue = [5, 0]"] ;
348 -> 352 ;
353 [label="gini = 0.0\nsamples = 1\nvalue = [0, 1]"] ;
347 -> 353 ;
354 [label="gini = 0.0\nsamples = 12\nvalue = [0, 12]"] ;
324 -> 354 ;
355 [label="gini = 0.0\nsamples = 2\nvalue = [2, 0]"] ;
323 -> 355 ;
356 [label="Fare <= 10.825\ngini = 0.499\nsamples = 56\nvalue = [27, 29]"] ;
322 -> 356 ;
357 [label="Fare <= 7.763\ngini = 0.482\nsamples = 32\nvalue = [19, 13]"] ;
356 -> 357 ;
358 [label="Age <= 25.5\ngini = 0.278\nsamples = 6\nvalue = [1, 5]"] ;
357 -> 358 ;
359 [label="gini = 0.0\nsamples = 5\nvalue = [0, 5]"] ;
358 -> 359 ;
360 [label="gini = 0.0\nsamples = 1\nvalue = [1, 0]"] ;
358 -> 360 ;
361 [label="Fare <= 10.152\ngini = 0.426\nsamples = 26\nvalue = [18, 8]"] ;
357 -> 361 ;
362 [label="Fare <= 9.84\ngini = 0.454\nsamples = 23\nvalue = [15, 8]"] ;
361 -> 362 ;
363 [label="Fare <= 9.588\ngini = 0.434\nsamples = 22\nvalue = [15, 7]"] ;
362 -> 363 ;
364 [label="Fare <= 9.1\ngini = 0.465\nsamples = 19\nvalue = [12, 7]"] ;
363 -> 364 ;
365 [label="Age <= 18.5\ngini = 0.444\nsamples = 18\nvalue = [12, 6]"] ;
364 -> 365 ;
366 [label="gini = 0.0\nsamples = 2\nvalue = [2, 0]"] ;
365 -> 366 ;
367 [label="Age <= 19.5\ngini = 0.469\nsamples = 16\nvalue = [10, 6]"] ;
365 -> 367 ;
368 [label="gini = 0.0\nsamples = 1\nvalue = [0, 1]"] ;
367 -> 368 ;
369 [label="Age <= 25.5\ngini = 0.444\nsamples = 15\nvalue = [10, 5]"] ;
367 -> 369 ;
370 [label="Age <= 22.5\ngini = 0.278\nsamples = 6\nvalue = [5, 1]"] ;
369 -> 370 ;
371 [label="Fare <= 8.219\ngini = 0.5\nsamples = 2\nvalue = [1, 1]"] ;
370 -> 371 ;
372 [label="gini = 0.0\nsamples = 1\nvalue = [0, 1]"] ;
371 -> 372 ;
373 [label="gini = 0.0\nsamples = 1\nvalue = [1, 0]"] ;
371 -> 373 ;
374 [label="gini = 0.0\nsamples = 4\nvalue = [4, 0]"] ;
370 -> 374 ;
375 [label="Age <= 27.5\ngini = 0.494\nsamples = 9\nvalue = [5, 4]"] ;
369 -> 375 ;
376 [label="gini = 0.0\nsamples = 3\nvalue = [0, 3]"] ;
375 -> 376 ;
377 [label="Fare <= 8.673\ngini = 0.278\nsamples = 6\nvalue = [5, 1]"] ;
375 -> 377 ;
378 [label="gini = 0.0\nsamples = 5\nvalue = [5, 0]"] ;
377 -> 378 ;
379 [label="gini = 0.0\nsamples = 1\nvalue = [0, 1]"] ;
377 -> 379 ;
380 [label="gini = 0.0\nsamples = 1\nvalue = [0, 1]"] ;
364 -> 380 ;
381 [label="gini = 0.0\nsamples = 3\nvalue = [3, 0]"] ;
363 -> 381 ;
382 [label="gini = 0.0\nsamples = 1\nvalue = [0, 1]"] ;
362 -> 382 ;
383 [label="gini = 0.0\nsamples = 3\nvalue = [3, 0]"] ;
361 -> 383 ;
384 [label="Fare <= 17.6\ngini = 0.444\nsamples = 24\nvalue = [8, 16]"] ;
356 -> 384 ;
385 [label="Age <= 25.0\ngini = 0.231\nsamples = 15\nvalue = [2, 13]"] ;
384 -> 385 ;
386 [label="gini = 0.0\nsamples = 6\nvalue = [0, 6]"] ;
385 -> 386 ;
387 [label="Age <= 26.5\ngini = 0.346\nsamples = 9\nvalue = [2, 7]"] ;
385 -> 387 ;
388 [label="gini = 0.0\nsamples = 1\nvalue = [1, 0]"] ;
387 -> 388 ;
389 [label="FamilySize <= 2.5\ngini = 0.219\nsamples = 8\nvalue = [1, 7]"] ;
387 -> 389 ;
390 [label="gini = 0.0\nsamples = 5\nvalue = [0, 5]"] ;
389 -> 390 ;
391 [label="Age <= 27.5\ngini = 0.444\nsamples = 3\nvalue = [1, 2]"] ;
389 -> 391 ;
392 [label="gini = 0.0\nsamples = 1\nvalue = [0, 1]"] ;
391 -> 392 ;
393 [label="FamilySize <= 3.5\ngini = 0.5\nsamples = 2\nvalue = [1, 1]"] ;
391 -> 393 ;
394 [label="gini = 0.0\nsamples = 1\nvalue = [1, 0]"] ;
393 -> 394 ;
395 [label="gini = 0.0\nsamples = 1\nvalue = [0, 1]"] ;
393 -> 395 ;
396 [label="Age <= 7.0\ngini = 0.444\nsamples = 9\nvalue = [6, 3]"] ;
384 -> 396 ;
397 [label="gini = 0.0\nsamples = 1\nvalue = [0, 1]"] ;
396 -> 397 ;
398 [label="Age <= 30.5\ngini = 0.375\nsamples = 8\nvalue = [6, 2]"] ;
396 -> 398 ;
399 [label="gini = 0.0\nsamples = 5\nvalue = [5, 0]"] ;
398 -> 399 ;
400 [label="Fare <= 19.125\ngini = 0.444\nsamples = 3\nvalue = [1, 2]"] ;
398 -> 400 ;
401 [label="gini = 0.0\nsamples = 1\nvalue = [1, 0]"] ;
400 -> 401 ;
402 [label="gini = 0.0\nsamples = 2\nvalue = [0, 2]"] ;
400 -> 402 ;
403 [label="Age <= 55.0\ngini = 0.245\nsamples = 7\nvalue = [6, 1]"] ;
321 -> 403 ;
404 [label="gini = 0.0\nsamples = 6\nvalue = [6, 0]"] ;
403 -> 404 ;
405 [label="gini = 0.0\nsamples = 1\nvalue = [0, 1]"] ;
403 -> 405 ;
406 [label="Fare <= 14.5\ngini = 0.198\nsamples = 27\nvalue = [24, 3]"] ;
320 -> 406 ;
407 [label="gini = 0.0\nsamples = 1\nvalue = [0, 1]"] ;
406 -> 407 ;
408 [label="Fare <= 31.331\ngini = 0.142\nsamples = 26\nvalue = [24, 2]"] ;
406 -> 408 ;
409 [label="gini = 0.0\nsamples = 15\nvalue = [15, 0]"] ;
408 -> 409 ;
410 [label="Fare <= 32.881\ngini = 0.298\nsamples = 11\nvalue = [9, 2]"] ;
408 -> 410 ;
411 [label="gini = 0.0\nsamples = 2\nvalue = [0, 2]"] ;
410 -> 411 ;
412 [label="gini = 0.0\nsamples = 9\nvalue = [9, 0]"] ;
410 -> 412 ;
}